<?xml version="1.0"?>
<opencv_storage>
<cascade>
  <stageType>BOOST</stageType>
  <featureType>HAAR</featureType>
  <height>61</height>
  <width>38</width>
  <stageParams>
    <boostType>GAB</boostType>
    <minHitRate>9.9500000476837158e-01</minHitRate>
    <maxFalseAlarm>5.0000000000000000e-01</maxFalseAlarm>
    <weightTrimRate>9.4999998807907104e-01</weightTrimRate>
    <maxDepth>1</maxDepth>
    <maxWeakCount>100</maxWeakCount></stageParams>
  <featureParams>
    <maxCatCount>0</maxCatCount>
    <featSize>1</featSize>
    <mode>BASIC</mode></featureParams>
  <stageNum>6</stageNum>
  <stages>
    <!-- stage 0 -->
    <_>
      <maxWeakCount>5</maxWeakCount>
      <stageThreshold>-1.1012538671493530e+00</stageThreshold>
      <weakClassifiers>
        <_>
          <internalNodes>
            0 -1 1 -8.6831524968147278e-02</internalNodes>
          <leafValues>
            -8.4873950481414795e-01 3.9483395218849182e-01</leafValues></_>
        <_>
          <internalNodes>
            0 -1 9 1.7915584146976471e-02</internalNodes>
          <leafValues>
            -3.2327058911323547e-01 8.7583440542221069e-01</leafValues></_>
        <_>
          <internalNodes>
            0 -1 15 -1.1357993353158236e-03</internalNodes>
          <leafValues>
            7.0311468839645386e-01 -3.3800119161605835e-01</leafValues></_>
        <_>
          <internalNodes>
            0 -1 19 -3.9313081651926041e-03</internalNodes>
          <leafValues>
            5.8397245407104492e-01 -4.2379885911941528e-01</leafValues></_>
        <_>
          <internalNodes>
            0 -1 6 1.6141009982675314e-03</internalNodes>
          <leafValues>
            -4.1101720929145813e-01 6.3626152276992798e-01</leafValues></_></weakClassifiers></_>
    <!-- stage 1 -->
    <_>
      <maxWeakCount>7</maxWeakCount>
      <stageThreshold>-8.6474972963333130e-01</stageThreshold>
      <weakClassifiers>
        <_>
          <internalNodes>
            0 -1 8 2.3383680731058121e-02</internalNodes>
          <leafValues>
            -3.2342007756233215e-01 7.6859503984451294e-01</leafValues></_>
        <_>
          <internalNodes>
            0 -1 13 -8.4027117118239403e-03</internalNodes>
          <leafValues>
            7.9760718345642090e-01 -2.7107921242713928e-01</leafValues></_>
        <_>
          <internalNodes>
            0 -1 15 -1.2147650122642517e-03</internalNodes>
          <leafValues>
            6.9803237915039063e-01 -4.2573803663253784e-01</leafValues></_>
        <_>
          <internalNodes>
            0 -1 20 7.4931499548256397e-03</internalNodes>
          <leafValues>
            -3.4378665685653687e-01 6.6443961858749390e-01</leafValues></_>
        <_>
          <internalNodes>
            0 -1 5 -2.1043809130787849e-02</internalNodes>
          <leafValues>
            7.3874729871749878e-01 -3.8882818818092346e-01</leafValues></_>
        <_>
          <internalNodes>
            0 -1 4 5.3418055176734924e-02</internalNodes>
          <leafValues>
            -4.7727838158607483e-01 6.6691076755523682e-01</leafValues></_>
        <_>
          <internalNodes>
            0 -1 3 -3.3019943657563999e-05</internalNodes>
          <leafValues>
            -7.3031395673751831e-01 3.5715451836585999e-01</leafValues></_></weakClassifiers></_>
    <!-- stage 2 -->
    <_>
      <maxWeakCount>4</maxWeakCount>
      <stageThreshold>-4.3133527040481567e-01</stageThreshold>
      <weakClassifiers>
        <_>
          <internalNodes>
            0 -1 22 3.4336205571889877e-03</internalNodes>
          <leafValues>
            -3.4798535704612732e-01 8.6324787139892578e-01</leafValues></_>
        <_>
          <internalNodes>
            0 -1 18 1.1867522262036800e-03</internalNodes>
          <leafValues>
            -2.5317865610122681e-01 9.2059248685836792e-01</leafValues></_>
        <_>
          <internalNodes>
            0 -1 12 1.4040453359484673e-02</internalNodes>
          <leafValues>
            -3.1312763690948486e-01 8.7875241041183472e-01</leafValues></_>
        <_>
          <internalNodes>
            0 -1 23 -7.6052203075960279e-04</internalNodes>
          <leafValues>
            -6.9081473350524902e-01 5.0748950242996216e-01</leafValues></_></weakClassifiers></_>
    <!-- stage 3 -->
    <_>
      <maxWeakCount>4</maxWeakCount>
      <stageThreshold>-5.4068470001220703e-01</stageThreshold>
      <weakClassifiers>
        <_>
          <internalNodes>
            0 -1 2 7.0150027750059962e-04</internalNodes>
          <leafValues>
            -3.7142857909202576e-01 1.</leafValues></_>
        <_>
          <internalNodes>
            0 -1 21 -2.6115849614143372e-03</internalNodes>
          <leafValues>
            1. -2.9729619622230530e-01</leafValues></_>
        <_>
          <internalNodes>
            0 -1 17 -4.5316810428630561e-05</internalNodes>
          <leafValues>
            8.9275854825973511e-01 -3.6137565970420837e-01</leafValues></_>
        <_>
          <internalNodes>
            0 -1 7 -7.4292634963057935e-05</internalNodes>
          <leafValues>
            -9.2574328184127808e-01 4.8941576480865479e-01</leafValues></_></weakClassifiers></_>
    <!-- stage 4 -->
    <_>
      <maxWeakCount>3</maxWeakCount>
      <stageThreshold>-5.2967673540115356e-01</stageThreshold>
      <weakClassifiers>
        <_>
          <internalNodes>
            0 -1 10 -6.1726878629997373e-04</internalNodes>
          <leafValues>
            -7.5634515285491943e-01 8.0310881137847900e-01</leafValues></_>
        <_>
          <internalNodes>
            0 -1 16 9.1539724962785840e-05</internalNodes>
          <leafValues>
            1. -5.9985768795013428e-01</leafValues></_>
        <_>
          <internalNodes>
            0 -1 11 2.0002305507659912e-02</internalNodes>
          <leafValues>
            8.8827806711196899e-01 -7.3292785882949829e-01</leafValues></_></weakClassifiers></_>
    <!-- stage 5 -->
    <_>
      <maxWeakCount>3</maxWeakCount>
      <stageThreshold>-8.1883901357650757e-01</stageThreshold>
      <weakClassifiers>
        <_>
          <internalNodes>
            0 -1 14 2.6441687345504761e-01</internalNodes>
          <leafValues>
            1. -9.5918369293212891e-01</leafValues></_>
        <_>
          <internalNodes>
            0 -1 0 3.5241597890853882e-01</internalNodes>
          <leafValues>
            1. -8.5965532064437866e-01</leafValues></_>
        <_>
          <internalNodes>
            0 -1 24 1.3868418522179127e-02</internalNodes>
          <leafValues>
            1. -8.3939707279205322e-01</leafValues></_></weakClassifiers></_></stages>
  <features>
    <_>
      <rects>
        <_>
          0 0 38 28 -1.</_>
        <_>
          0 14 38 14 2.</_></rects>
      <tilted>0</tilted></_>
    <_>
      <rects>
        <_>
          0 3 35 50 -1.</_>
        <_>
          0 28 35 25 2.</_></rects>
      <tilted>0</tilted></_>
    <_>
      <rects>
        <_>
          0 8 29 2 -1.</_>
        <_>
          0 9 29 1 2.</_></rects>
      <tilted>0</tilted></_>
    <_>
      <rects>
        <_>
          0 51 2 1 -1.</_>
        <_>
          1 51 1 1 2.</_></rects>
      <tilted>0</tilted></_>
    <_>
      <rects>
        <_>
          1 0 25 22 -1.</_>
        <_>
          1 11 25 11 2.</_></rects>
      <tilted>0</tilted></_>
    <_>
      <rects>
        <_>
          1 17 24 18 -1.</_>
        <_>
          1 17 12 9 2.</_>
        <_>
          13 26 12 9 2.</_></rects>
      <tilted>0</tilted></_>
    <_>
      <rects>
        <_>
          2 5 6 17 -1.</_>
        <_>
          5 5 3 17 2.</_></rects>
      <tilted>0</tilted></_>
    <_>
      <rects>
        <_>
          3 58 2 2 -1.</_>
        <_>
          3 59 2 1 2.</_></rects>
      <tilted>0</tilted></_>
    <_>
      <rects>
        <_>
          9 0 23 18 -1.</_>
        <_>
          9 6 23 6 3.</_></rects>
      <tilted>0</tilted></_>
    <_>
      <rects>
        <_>
          9 3 20 12 -1.</_>
        <_>
          9 7 20 4 3.</_></rects>
      <tilted>0</tilted></_>
    <_>
      <rects>
        <_>
          10 0 4 5 -1.</_>
        <_>
          12 0 2 5 2.</_></rects>
      <tilted>0</tilted></_>
    <_>
      <rects>
        <_>
          10 9 4 34 -1.</_>
        <_>
          10 26 4 17 2.</_></rects>
      <tilted>0</tilted></_>
    <_>
      <rects>
        <_>
          13 5 25 15 -1.</_>
        <_>
          13 10 25 5 3.</_></rects>
      <tilted>0</tilted></_>
    <_>
      <rects>
        <_>
          13 17 18 14 -1.</_>
        <_>
          19 17 6 14 3.</_></rects>
      <tilted>0</tilted></_>
    <_>
      <rects>
        <_>
          15 0 23 30 -1.</_>
        <_>
          15 15 23 15 2.</_></rects>
      <tilted>0</tilted></_>
    <_>
      <rects>
        <_>
          15 2 6 9 -1.</_>
        <_>
          15 5 6 3 3.</_></rects>
      <tilted>0</tilted></_>
    <_>
      <rects>
        <_>
          15 28 10 6 -1.</_>
        <_>
          15 30 10 2 3.</_></rects>
      <tilted>0</tilted></_>
    <_>
      <rects>
        <_>
          17 44 2 12 -1.</_>
        <_>
          17 44 1 6 2.</_>
        <_>
          18 50 1 6 2.</_></rects>
      <tilted>0</tilted></_>
    <_>
      <rects>
        <_>
          19 19 6 12 -1.</_>
        <_>
          19 19 3 6 2.</_>
        <_>
          22 25 3 6 2.</_></rects>
      <tilted>0</tilted></_>
    <_>
      <rects>
        <_>
          19 21 6 21 -1.</_>
        <_>
          19 28 6 7 3.</_></rects>
      <tilted>0</tilted></_>
    <_>
      <rects>
        <_>
          19 34 15 20 -1.</_>
        <_>
          24 34 5 20 3.</_></rects>
      <tilted>0</tilted></_>
    <_>
      <rects>
        <_>
          20 10 12 20 -1.</_>
        <_>
          24 10 4 20 3.</_></rects>
      <tilted>0</tilted></_>
    <_>
      <rects>
        <_>
          26 7 8 24 -1.</_>
        <_>
          26 7 4 12 2.</_>
        <_>
          30 19 4 12 2.</_></rects>
      <tilted>0</tilted></_>
    <_>
      <rects>
        <_>
          26 58 12 2 -1.</_>
        <_>
          32 58 6 2 2.</_></rects>
      <tilted>0</tilted></_>
    <_>
      <rects>
        <_>
          36 0 1 32 -1.</_>
        <_>
          36 16 1 16 2.</_></rects>
      <tilted>0</tilted></_></features></cascade>
</opencv_storage>
